digraph Tree {
node [shape=box] ;
0 [label="X[0] <= 5.45\ngini = 0.667\nsamples = 150\nvalue = [50, 50, 50]"] ;
1 [label="X[0] <= 4.85\ngini = 0.237\nsamples = 52\nvalue = [45, 6, 1]"] ;
0 -> 1 [labeldistance=2.5, labelangle=45, headlabel="True"] ;
2 [label="gini = 0.0\nsamples = 16\nvalue = [16, 0, 0]"] ;
1 -> 2 ;
3 [label="X[0] <= 4.95\ngini = 0.323\nsamples = 36\nvalue = [29, 6, 1]"] ;
1 -> 3 ;
4 [label="gini = 0.5\nsamples = 6\nvalue = [4, 1, 1]"] ;
3 -> 4 ;
5 [label="X[0] <= 5.05\ngini = 0.278\nsamples = 30\nvalue = [25, 5, 0]"] ;
3 -> 5 ;
6 [label="gini = 0.32\nsamples = 10\nvalue = [8, 2, 0]"] ;
5 -> 6 ;
7 [label="X[0] <= 5.15\ngini = 0.255\nsamples = 20\nvalue = [17, 3, 0]"] ;
5 -> 7 ;
8 [label="gini = 0.198\nsamples = 9\nvalue = [8, 1, 0]"] ;
7 -> 8 ;
9 [label="X[0] <= 5.25\ngini = 0.298\nsamples = 11\nvalue = [9, 2, 0]"] ;
7 -> 9 ;
10 [label="gini = 0.375\nsamples = 4\nvalue = [3, 1, 0]"] ;
9 -> 10 ;
11 [label="X[0] <= 5.35\ngini = 0.245\nsamples = 7\nvalue = [6, 1, 0]"] ;
9 -> 11 ;
12 [label="gini = 0.0\nsamples = 1\nvalue = [1, 0, 0]"] ;
11 -> 12 ;
13 [label="gini = 0.278\nsamples = 6\nvalue = [5, 1, 0]"] ;
11 -> 13 ;
14 [label="X[0] <= 6.15\ngini = 0.546\nsamples = 98\nvalue = [5, 44, 49]"] ;
0 -> 14 [labeldistance=2.5, labelangle=-45, headlabel="False"] ;
15 [label="X[0] <= 5.75\ngini = 0.508\nsamples = 43\nvalue = [5, 28, 10]"] ;
14 -> 15 ;
16 [label="X[0] <= 5.55\ngini = 0.444\nsamples = 21\nvalue = [4, 15, 2]"] ;
15 -> 16 ;
17 [label="gini = 0.408\nsamples = 7\nvalue = [2, 5, 0]"] ;
16 -> 17 ;
18 [label="X[0] <= 5.65\ngini = 0.449\nsamples = 14\nvalue = [2, 10, 2]"] ;
16 -> 18 ;
19 [label="gini = 0.278\nsamples = 6\nvalue = [0, 5, 1]"] ;
18 -> 19 ;
20 [label="gini = 0.531\nsamples = 8\nvalue = [2, 5, 1]"] ;
18 -> 20 ;
21 [label="X[0] <= 5.85\ngini = 0.517\nsamples = 22\nvalue = [1, 13, 8]"] ;
15 -> 21 ;
22 [label="gini = 0.612\nsamples = 7\nvalue = [1, 3, 3]"] ;
21 -> 22 ;
23 [label="X[0] <= 5.95\ngini = 0.444\nsamples = 15\nvalue = [0, 10, 5]"] ;
21 -> 23 ;
24 [label="gini = 0.444\nsamples = 3\nvalue = [0, 2, 1]"] ;
23 -> 24 ;
25 [label="X[0] <= 6.05\ngini = 0.444\nsamples = 12\nvalue = [0, 8, 4]"] ;
23 -> 25 ;
26 [label="gini = 0.444\nsamples = 6\nvalue = [0, 4, 2]"] ;
25 -> 26 ;
27 [label="gini = 0.444\nsamples = 6\nvalue = [0, 4, 2]"] ;
25 -> 27 ;
28 [label="X[0] <= 7.05\ngini = 0.413\nsamples = 55\nvalue = [0, 16, 39]"] ;
14 -> 28 ;
29 [label="X[0] <= 6.95\ngini = 0.467\nsamples = 43\nvalue = [0, 16, 27]"] ;
28 -> 29 ;
30 [label="X[0] <= 6.25\ngini = 0.459\nsamples = 42\nvalue = [0, 15, 27]"] ;
29 -> 30 ;
31 [label="gini = 0.5\nsamples = 4\nvalue = [0, 2, 2]"] ;
30 -> 31 ;
32 [label="X[0] <= 6.55\ngini = 0.45\nsamples = 38\nvalue = [0, 13, 25]"] ;
30 -> 32 ;
33 [label="X[0] <= 6.45\ngini = 0.408\nsamples = 21\nvalue = [0, 6, 15]"] ;
32 -> 33 ;
34 [label="X[0] <= 6.35\ngini = 0.43\nsamples = 16\nvalue = [0, 5, 11]"] ;
33 -> 34 ;
35 [label="gini = 0.444\nsamples = 9\nvalue = [0, 3, 6]"] ;
34 -> 35 ;
36 [label="gini = 0.408\nsamples = 7\nvalue = [0, 2, 5]"] ;
34 -> 36 ;
37 [label="gini = 0.32\nsamples = 5\nvalue = [0, 1, 4]"] ;
33 -> 37 ;
38 [label="X[0] <= 6.65\ngini = 0.484\nsamples = 17\nvalue = [0, 7, 10]"] ;
32 -> 38 ;
39 [label="gini = 0.0\nsamples = 2\nvalue = [0, 2, 0]"] ;
38 -> 39 ;
40 [label="X[0] <= 6.85\ngini = 0.444\nsamples = 15\nvalue = [0, 5, 10]"] ;
38 -> 40 ;
41 [label="X[0] <= 6.75\ngini = 0.463\nsamples = 11\nvalue = [0, 4, 7]"] ;
40 -> 41 ;
42 [label="gini = 0.469\nsamples = 8\nvalue = [0, 3, 5]"] ;
41 -> 42 ;
43 [label="gini = 0.444\nsamples = 3\nvalue = [0, 1, 2]"] ;
41 -> 43 ;
44 [label="gini = 0.375\nsamples = 4\nvalue = [0, 1, 3]"] ;
40 -> 44 ;
45 [label="gini = 0.0\nsamples = 1\nvalue = [0, 1, 0]"] ;
29 -> 45 ;
46 [label="gini = 0.0\nsamples = 12\nvalue = [0, 0, 12]"] ;
28 -> 46 ;
}
